<?xml version="1.0"?>
<opencv_storage>
<stage5>
  <maxWeakCount>100</maxWeakCount>
  <stageThreshold>-6.3686656951904297e-01</stageThreshold>
  <weakClassifiers>
    <_>
      <internalNodes>
        0 -1 64730 -3.5400865599513054e-03</internalNodes>
      <leafValues>
        -7.6271183788776398e-02 3.7256494164466858e-01</leafValues></_>
    <_>
      <internalNodes>
        0 -1 27818 -5.7554985396564007e-03</internalNodes>
      <leafValues>
        3.2485982775688171e-01 -4.6354435384273529e-02</leafValues></_>
    <_>
      <internalNodes>
        0 -1 39379 5.2461586892604828e-03</internalNodes>
      <leafValues>
        -8.8650651276111603e-02 1.8446679413318634e-01</leafValues></_>
    <_>
      <internalNodes>
        0 -1 78277 7.4743037112057209e-04</internalNodes>
      <leafValues>
        6.4601197838783264e-02 -2.0182228088378906e-01</leafValues></_>
    <_>
      <internalNodes>
        0 -1 73503 -2.7123114559799433e-03</internalNodes>
      <leafValues>
        -2.7089729905128479e-01 5.3044442087411880e-02</leafValues></_>
    <_>
      <internalNodes>
        0 -1 27818 -5.2727852016687393e-03</internalNodes>
      <leafValues>
        -3.7284696102142334e-01 3.9456885308027267e-02</leafValues></_>
    <_>
      <internalNodes>
        0 -1 27818 -5.1055867224931717e-03</internalNodes>
      <leafValues>
        3.8306441903114319e-01 -7.1636149659752846e-03</leafValues></_>
    <_>
      <internalNodes>
        0 -1 56468 2.7893036603927612e-02</internalNodes>
      <leafValues>
        1.8286576494574547e-02 -3.3472648262977600e-01</leafValues></_>
    <_>
      <internalNodes>
        0 -1 42880 1.1967021971940994e-02</internalNodes>
      <leafValues>
        -1.1016335338354111e-01 1.6755059361457825e-01</leafValues></_>
    <_>
      <internalNodes>
        0 -1 71993 3.2576225697994232e-02</internalNodes>
      <leafValues>
        -2.9906583949923515e-02 4.7726783156394958e-01</leafValues></_>
    <_>
      <internalNodes>
        0 -1 72428 -7.7502718195319176e-03</internalNodes>
      <leafValues>
        -4.2416307330131531e-01 3.1597558408975601e-02</leafValues></_>
    <_>
      <internalNodes>
        0 -1 63602 -5.9492448344826698e-03</internalNodes>
      <leafValues>
        -9.0165948867797852e-01 2.0785661414265633e-02</leafValues></_>
    <_>
      <internalNodes>
        0 -1 75142 4.3100840412080288e-03</internalNodes>
      <leafValues>
        -5.6313313543796539e-02 2.6977223157882690e-01</leafValues></_>
    <_>
      <internalNodes>
        0 -1 75137 -3.6584297195076942e-03</internalNodes>
      <leafValues>
        -5.4955387115478516e-01 2.9040036723017693e-02</leafValues></_>
    <_>
      <internalNodes>
        0 -1 68677 -1.9585310947149992e-03</internalNodes>
      <leafValues>
        3.1855723261833191e-01 -4.5212320983409882e-02</leafValues></_>
    <_>
      <internalNodes>
        0 -1 70724 2.3182235658168793e-02</internalNodes>
      <leafValues>
        -3.0474152415990829e-02 4.6063885092735291e-01</leafValues></_>
    <_>
      <internalNodes>
        0 -1 73151 -2.9257673304527998e-03</internalNodes>
      <leafValues>
        -3.8585042953491211e-01 3.8360528647899628e-02</leafValues></_>
    <_>
      <internalNodes>
        0 -1 65555 1.6884013311937451e-03</internalNodes>
      <leafValues>
        -1.0156397521495819e-01 1.5055306255817413e-01</leafValues></_>
    <_>
      <internalNodes>
        0 -1 64533 -4.9361120909452438e-03</internalNodes>
      <leafValues>
        -5.4670971632003784e-01 2.7501521632075310e-02</leafValues></_>
    <_>
      <internalNodes>
        0 -1 49920 -2.7526752091944218e-03</internalNodes>
      <leafValues>
        -3.9442861080169678e-01 3.5625357180833817e-02</leafValues></_>
    <_>
      <internalNodes>
        0 -1 68599 -1.9167577847838402e-03</internalNodes>
      <leafValues>
        1.9185349345207214e-01 -7.3192700743675232e-02</leafValues></_>
    <_>
      <internalNodes>
        0 -1 58470 -5.8616725727915764e-03</internalNodes>
      <leafValues>
        2.1826060116291046e-01 -7.0594675838947296e-02</leafValues></_>
    <_>
      <internalNodes>
        0 -1 68641 -8.5960869910195470e-04</internalNodes>
      <leafValues>
        1.7560772597789764e-01 -1.0176859050989151e-01</leafValues></_>
    <_>
      <internalNodes>
        0 -1 56461 2.8429768979549408e-02</internalNodes>
      <leafValues>
        -2.2769521921873093e-02 6.1413037776947021e-01</leafValues></_>
    <_>
      <internalNodes>
        0 -1 50356 -1.9664494320750237e-02</internalNodes>
      <leafValues>
        2.0937144756317139e-01 -6.9672100245952606e-02</leafValues></_>
    <_>
      <internalNodes>
        0 -1 694 1.6188684850931168e-02</internalNodes>
      <leafValues>
        -8.4091126918792725e-02 2.2135527431964874e-01</leafValues></_>
    <_>
      <internalNodes>
        0 -1 53922 1.5337285585701466e-03</internalNodes>
      <leafValues>
        -9.2155210673809052e-02 1.6144724190235138e-01</leafValues></_>
    <_>
      <internalNodes>
        0 -1 56357 -5.2386126480996609e-03</internalNodes>
      <leafValues>
        -5.8900046348571777e-01 2.5215251371264458e-02</leafValues></_>
    <_>
      <internalNodes>
        0 -1 70445 4.2263446375727654e-03</internalNodes>
      <leafValues>
        2.6174284517765045e-02 -5.9693813323974609e-01</leafValues></_>
    <_>
      <internalNodes>
        0 -1 42985 -2.7720930520445108e-03</internalNodes>
      <leafValues>
        2.0720921456813812e-01 -7.2877228260040283e-02</leafValues></_>
    <_>
      <internalNodes>
        0 -1 56414 -2.4530548602342606e-02</internalNodes>
      <leafValues>
        -5.6718367338180542e-01 3.0755462124943733e-02</leafValues></_>
    <_>
      <internalNodes>
        0 -1 75648 -2.3102954030036926e-02</internalNodes>
      <leafValues>
        4.2663905024528503e-01 -3.7251263856887817e-02</leafValues></_>
    <_>
      <internalNodes>
        0 -1 76478 -1.2580136768519878e-02</internalNodes>
      <leafValues>
        -6.2548512220382690e-01 2.5970574468374252e-02</leafValues></_>
    <_>
      <internalNodes>
        0 -1 36714 2.2815756499767303e-02</internalNodes>
      <leafValues>
        3.1872782856225967e-02 -4.5716357231140137e-01</leafValues></_>
    <_>
      <internalNodes>
        0 -1 29455 9.7224244382232428e-04</internalNodes>
      <leafValues>
        -1.1212934553623199e-01 1.2805937230587006e-01</leafValues></_>
    <_>
      <internalNodes>
        0 -1 29776 2.0082695409655571e-02</internalNodes>
      <leafValues>
        -5.6357476860284805e-02 2.9639771580696106e-01</leafValues></_>
    <_>
      <internalNodes>
        0 -1 54427 1.0201865807175636e-03</internalNodes>
      <leafValues>
        -7.6686702668666840e-02 1.9693250954151154e-01</leafValues></_>
    <_>
      <internalNodes>
        0 -1 44297 6.9204103201627731e-03</internalNodes>
      <leafValues>
        -5.1410991698503494e-02 2.6793166995048523e-01</leafValues></_>
    <_>
      <internalNodes>
        0 -1 57171 -1.8971621990203857e-02</internalNodes>
      <leafValues>
        -3.3362540602684021e-01 4.5909773558378220e-02</leafValues></_>
    <_>
      <internalNodes>
        0 -1 37797 9.3955080956220627e-04</internalNodes>
      <leafValues>
        -7.2538889944553375e-02 2.0720620453357697e-01</leafValues></_>
    <_>
      <internalNodes>
        0 -1 13989 1.0778304189443588e-02</internalNodes>
      <leafValues>
        4.2809281498193741e-02 -3.9097002148628235e-01</leafValues></_>
    <_>
      <internalNodes>
        0 -1 39244 -1.9351997179910541e-03</internalNodes>
      <leafValues>
        -1.5732589364051819e-01 1.0412938147783279e-01</leafValues></_>
    <_>
      <internalNodes>
        0 -1 75184 -8.7925745174288750e-04</internalNodes>
      <leafValues>
        -1.5312936902046204e-01 1.0246340185403824e-01</leafValues></_>
    <_>
      <internalNodes>
        0 -1 78280 -1.9199252128601074e-03</internalNodes>
      <leafValues>
        -2.2764061391353607e-01 6.7863546311855316e-02</leafValues></_>
    <_>
      <internalNodes>
        0 -1 78408 1.2237235903739929e-02</internalNodes>
      <leafValues>
        -4.6603463590145111e-02 3.2040998339653015e-01</leafValues></_>
    <_>
      <internalNodes>
        0 -1 77525 1.0778133291751146e-03</internalNodes>
      <leafValues>
        9.2776447534561157e-02 -1.6817507147789001e-01</leafValues></_>
    <_>
      <internalNodes>
        0 -1 12959 1.2608941178768873e-03</internalNodes>
      <leafValues>
        -7.4585981667041779e-02 1.9084048271179199e-01</leafValues></_>
    <_>
      <internalNodes>
        0 -1 74107 9.1873049736022949e-02</internalNodes>
      <leafValues>
        -2.2139893844723701e-02 6.6512507200241089e-01</leafValues></_>
    <_>
      <internalNodes>
        0 -1 51497 7.8872755169868469e-02</internalNodes>
      <leafValues>
        4.5261129736900330e-02 -3.7145668268203735e-01</leafValues></_>
    <_>
      <internalNodes>
        0 -1 52938 1.1220682412385941e-02</internalNodes>
      <leafValues>
        -3.8356374949216843e-02 3.9466342329978943e-01</leafValues></_>
    <_>
      <internalNodes>
        0 -1 65419 -1.3902800157666206e-02</internalNodes>
      <leafValues>
        -4.0244084596633911e-01 4.2535938322544098e-02</leafValues></_>
    <_>
      <internalNodes>
        0 -1 78267 -1.1204518377780914e-03</internalNodes>
      <leafValues>
        -1.4620891213417053e-01 9.8760195076465607e-02</leafValues></_>
    <_>
      <internalNodes>
        0 -1 60258 4.3155602179467678e-03</internalNodes>
      <leafValues>
        3.6487698554992676e-02 -3.8135656714439392e-01</leafValues></_>
    <_>
      <internalNodes>
        0 -1 53244 -2.5063185021281242e-03</internalNodes>
      <leafValues>
        1.9744710624217987e-01 -6.9718793034553528e-02</leafValues></_>
    <_>
      <internalNodes>
        0 -1 26394 6.1339908279478550e-03</internalNodes>
      <leafValues>
        -8.3897002041339874e-02 1.9717444479465485e-01</leafValues></_>
    <_>
      <internalNodes>
        0 -1 78107 -4.7309873625636101e-03</internalNodes>
      <leafValues>
        -4.5789095759391785e-01 3.5493321716785431e-02</leafValues></_>
    <_>
      <internalNodes>
        0 -1 76621 -4.0324656292796135e-03</internalNodes>
      <leafValues>
        -3.7376606464385986e-01 3.7912856787443161e-02</leafValues></_>
    <_>
      <internalNodes>
        0 -1 58598 -4.7707278281450272e-03</internalNodes>
      <leafValues>
        -4.6026143431663513e-01 3.0158311128616333e-02</leafValues></_>
    <_>
      <internalNodes>
        0 -1 57193 6.7617325112223625e-04</internalNodes>
      <leafValues>
        -1.1983752995729446e-01 1.2223924696445465e-01</leafValues></_>
    <_>
      <internalNodes>
        0 -1 64121 -2.3028111085295677e-02</internalNodes>
      <leafValues>
        -6.0224705934524536e-01 2.6638604700565338e-02</leafValues></_>
    <_>
      <internalNodes>
        0 -1 6681 -3.5250012297183275e-04</internalNodes>
      <leafValues>
        -1.3388529419898987e-01 1.0185061395168304e-01</leafValues></_>
    <_>
      <internalNodes>
        0 -1 63921 -3.2453168183565140e-02</internalNodes>
      <leafValues>
        -6.6957300901412964e-01 2.2028174251317978e-02</leafValues></_>
    <_>
      <internalNodes>
        0 -1 53454 5.4243481718003750e-03</internalNodes>
      <leafValues>
        -6.1763621866703033e-02 2.3320743441581726e-01</leafValues></_>
    <_>
      <internalNodes>
        0 -1 53868 9.0281162410974503e-03</internalNodes>
      <leafValues>
        1.9791478291153908e-02 -7.8414869308471680e-01</leafValues></_>
    <_>
      <internalNodes>
        0 -1 54194 4.2210626415908337e-03</internalNodes>
      <leafValues>
        2.2386979311704636e-02 -5.7072085142135620e-01</leafValues></_>
    <_>
      <internalNodes>
        0 -1 49219 2.4463186040520668e-02</internalNodes>
      <leafValues>
        -2.4276763200759888e-02 6.4013200998306274e-01</leafValues></_>
    <_>
      <internalNodes>
        0 -1 14811 1.6392663121223450e-02</internalNodes>
      <leafValues>
        -4.4646993279457092e-02 3.1512215733528137e-01</leafValues></_>
    <_>
      <internalNodes>
        0 -1 49269 -1.6621856484562159e-03</internalNodes>
      <leafValues>
        1.2775675952434540e-01 -1.1684221774339676e-01</leafValues></_>
    <_>
      <internalNodes>
        0 -1 11673 -1.4890235662460327e-01</internalNodes>
      <leafValues>
        3.5781362652778625e-01 -4.3171349912881851e-02</leafValues></_>
    <_>
      <internalNodes>
        0 -1 21187 -2.4257691111415625e-03</internalNodes>
      <leafValues>
        -1.6390372812747955e-01 9.3409150838851929e-02</leafValues></_>
    <_>
      <internalNodes>
        0 -1 11736 3.2852226868271828e-03</internalNodes>
      <leafValues>
        3.4532483667135239e-02 -4.1590210795402527e-01</leafValues></_>
    <_>
      <internalNodes>
        0 -1 1455 1.6324646770954132e-02</internalNodes>
      <leafValues>
        -4.1733115911483765e-02 3.4134498238563538e-01</leafValues></_>
    <_>
      <internalNodes>
        0 -1 2730 -3.6501481663435698e-03</internalNodes>
      <leafValues>
        2.6017829775810242e-01 -5.9966348111629486e-02</leafValues></_>
    <_>
      <internalNodes>
        0 -1 65815 -2.4958919733762741e-02</internalNodes>
      <leafValues>
        4.9400866031646729e-01 -2.6659887284040451e-02</leafValues></_>
    <_>
      <internalNodes>
        0 -1 73434 1.0799461975693703e-02</internalNodes>
      <leafValues>
        3.1537331640720367e-02 -4.8222088813781738e-01</leafValues></_>
    <_>
      <internalNodes>
        0 -1 49946 -4.7775027342140675e-03</internalNodes>
      <leafValues>
        2.3155044019222260e-01 -6.5353520214557648e-02</leafValues></_>
    <_>
      <internalNodes>
        0 -1 52999 3.8790881633758545e-02</internalNodes>
      <leafValues>
        4.8717040568590164e-02 -3.2117080688476562e-01</leafValues></_>
    <_>
      <internalNodes>
        0 -1 40372 -5.9922761283814907e-03</internalNodes>
      <leafValues>
        -5.9446084499359131e-01 2.2870967164635658e-02</leafValues></_>
    <_>
      <internalNodes>
        0 -1 54755 -1.2206023093312979e-03</internalNodes>
      <leafValues>
        1.5449872612953186e-01 -9.9574573338031769e-02</leafValues></_>
    <_>
      <internalNodes>
        0 -1 69492 -3.4808561205863953e-02</internalNodes>
      <leafValues>
        2.3452927172183990e-01 -6.7208185791969299e-02</leafValues></_>
    <_>
      <internalNodes>
        0 -1 77664 -8.0502766650170088e-04</internalNodes>
      <leafValues>
        -2.2207707166671753e-01 7.3125146329402924e-02</leafValues></_>
    <_>
      <internalNodes>
        0 -1 70804 1.5754773048684001e-03</internalNodes>
      <leafValues>
        -9.2665135860443115e-02 1.5544791519641876e-01</leafValues></_>
    <_>
      <internalNodes>
        0 -1 7786 -4.2085576802492142e-02</internalNodes>
      <leafValues>
        -2.5838378071784973e-01 5.5900808423757553e-02</leafValues></_>
    <_>
      <internalNodes>
        0 -1 67632 6.6957101225852966e-03</internalNodes>
      <leafValues>
        2.5950629264116287e-02 -5.5439352989196777e-01</leafValues></_>
    <_>
      <internalNodes>
        0 -1 42595 -2.2996522486209869e-02</internalNodes>
      <leafValues>
        -8.0342209339141846e-01 1.6948390752077103e-02</leafValues></_>
    <_>
      <internalNodes>
        0 -1 49857 1.4097270322963595e-03</internalNodes>
      <leafValues>
        6.7627489566802979e-02 -2.1582426130771637e-01</leafValues></_>
    <_>
      <internalNodes>
        0 -1 68566 -1.6798922792077065e-02</internalNodes>
      <leafValues>
        3.0421394109725952e-01 -4.8142589628696442e-02</leafValues></_>
    <_>
      <internalNodes>
        0 -1 52425 -3.5108069423586130e-03</internalNodes>
      <leafValues>
        2.0192414522171021e-01 -7.6124012470245361e-02</leafValues></_>
    <_>
      <internalNodes>
        0 -1 62353 8.1336069852113724e-03</internalNodes>
      <leafValues>
        -5.2133250981569290e-02 3.1711459159851074e-01</leafValues></_>
    <_>
      <internalNodes>
        0 -1 38703 4.8203631304204464e-03</internalNodes>
      <leafValues>
        -6.2555685639381409e-02 2.4011620879173279e-01</leafValues></_>
    <_>
      <internalNodes>
        0 -1 27469 -1.0970678413286805e-03</internalNodes>
      <leafValues>
        2.0805777609348297e-01 -8.1324972212314606e-02</leafValues></_>
    <_>
      <internalNodes>
        0 -1 68255 -4.8010433092713356e-03</internalNodes>
      <leafValues>
        -2.9351773858070374e-01 5.8107156306505203e-02</leafValues></_>
    <_>
      <internalNodes>
        0 -1 44863 -1.1432617902755737e-03</internalNodes>
      <leafValues>
        1.3380153477191925e-01 -1.1130625009536743e-01</leafValues></_>
    <_>
      <internalNodes>
        0 -1 44660 -5.6268377229571342e-03</internalNodes>
      <leafValues>
        -5.6961357593536377e-01 3.1164005398750305e-02</leafValues></_>
    <_>
      <internalNodes>
        0 -1 9975 -4.1456785053014755e-02</internalNodes>
      <leafValues>
        4.2196294665336609e-01 -3.9404630661010742e-02</leafValues></_>
    <_>
      <internalNodes>
        0 -1 52103 1.9148265942931175e-02</internalNodes>
      <leafValues>
        5.1160987466573715e-02 -3.4820476174354553e-01</leafValues></_>
    <_>
      <internalNodes>
        0 -1 66381 6.2735807150602341e-03</internalNodes>
      <leafValues>
        -1.0470876097679138e-01 1.4973932504653931e-01</leafValues></_>
    <_>
      <internalNodes>
        0 -1 27305 -2.2440077736973763e-04</internalNodes>
      <leafValues>
        -1.1871886253356934e-01 1.3084514439105988e-01</leafValues></_>
    <_>
      <internalNodes>
        0 -1 20944 1.0861292481422424e-01</internalNodes>
      <leafValues>
        2.4577008560299873e-02 -6.1486250162124634e-01</leafValues></_>
    <_>
      <internalNodes>
        0 -1 64104 5.5655026808381081e-03</internalNodes>
      <leafValues>
        1.9721942022442818e-02 -7.2839736938476562e-01</leafValues></_></weakClassifiers></stage5>
</opencv_storage>
