<?xml version="1.0"?>
<opencv_storage>
<stage9>
  <maxWeakCount>100</maxWeakCount>
  <stageThreshold>-5.6910938024520874e-01</stageThreshold>
  <weakClassifiers>
    <_>
      <internalNodes>
        0 -1 65535 -5.0126011483371258e-03</internalNodes>
      <leafValues>
        -1.0000000149011612e-01 3.6062991619110107e-01</leafValues></_>
    <_>
      <internalNodes>
        0 -1 47057 9.9199861288070679e-03</internalNodes>
      <leafValues>
        1.1523784697055817e-01 -1.2897820770740509e-01</leafValues></_>
    <_>
      <internalNodes>
        0 -1 12173 -1.5019709244370461e-03</internalNodes>
      <leafValues>
        1.7731642723083496e-01 -7.5759038329124451e-02</leafValues></_>
    <_>
      <internalNodes>
        0 -1 62248 -2.1204827353358269e-03</internalNodes>
      <leafValues>
        2.1190974116325378e-01 -6.1685629189014435e-02</leafValues></_>
    <_>
      <internalNodes>
        0 -1 11749 3.1262633856385946e-03</internalNodes>
      <leafValues>
        -1.1480637639760971e-01 1.4521893858909607e-01</leafValues></_>
    <_>
      <internalNodes>
        0 -1 61795 -1.5854223165661097e-03</internalNodes>
      <leafValues>
        1.1261735856533051e-01 -1.2176522612571716e-01</leafValues></_>
    <_>
      <internalNodes>
        0 -1 141 -2.2658597677946091e-02</internalNodes>
      <leafValues>
        5.0490146875381470e-01 -2.3749612271785736e-02</leafValues></_>
    <_>
      <internalNodes>
        0 -1 45027 -3.3038915134966373e-03</internalNodes>
      <leafValues>
        -2.7018034458160400e-01 6.5885923802852631e-02</leafValues></_>
    <_>
      <internalNodes>
        0 -1 61509 -3.5977063234895468e-03</internalNodes>
      <leafValues>
        1.5162783861160278e-01 -9.5035545527935028e-02</leafValues></_>
    <_>
      <internalNodes>
        0 -1 12193 -5.3456472232937813e-03</internalNodes>
      <leafValues>
        1.7284435033798218e-01 -7.9705074429512024e-02</leafValues></_>
    <_>
      <internalNodes>
        0 -1 13612 2.8888280503451824e-03</internalNodes>
      <leafValues>
        3.4540530294179916e-02 -3.7045842409133911e-01</leafValues></_>
    <_>
      <internalNodes>
        0 -1 49009 8.2992510870099068e-03</internalNodes>
      <leafValues>
        -2.4707173928618431e-02 5.0931650400161743e-01</leafValues></_>
    <_>
      <internalNodes>
        0 -1 51760 -6.8707138299942017e-02</internalNodes>
      <leafValues>
        -6.7359173297882080e-01 2.2861955687403679e-02</leafValues></_>
    <_>
      <internalNodes>
        0 -1 50231 -1.6997756902128458e-03</internalNodes>
      <leafValues>
        1.3860136270523071e-01 -8.8600397109985352e-02</leafValues></_>
    <_>
      <internalNodes>
        0 -1 34628 1.4945778995752335e-02</internalNodes>
      <leafValues>
        -3.1019881367683411e-02 4.3540823459625244e-01</leafValues></_>
    <_>
      <internalNodes>
        0 -1 12612 4.3689385056495667e-03</internalNodes>
      <leafValues>
        -6.2330719083547592e-02 1.8749433755874634e-01</leafValues></_>
    <_>
      <internalNodes>
        0 -1 22429 -1.4937364030629396e-03</internalNodes>
      <leafValues>
        -1.6330245137214661e-01 7.7998392283916473e-02</leafValues></_>
    <_>
      <internalNodes>
        0 -1 37787 -1.4646688476204872e-02</internalNodes>
      <leafValues>
        2.9288038611412048e-01 -3.8933251053094864e-02</leafValues></_>
    <_>
      <internalNodes>
        0 -1 42828 -4.6184476464986801e-02</internalNodes>
      <leafValues>
        -2.7914595603942871e-01 5.0700847059488297e-02</leafValues></_>
    <_>
      <internalNodes>
        0 -1 53209 -1.2676835758611560e-03</internalNodes>
      <leafValues>
        1.7038555443286896e-01 -7.4360951781272888e-02</leafValues></_>
    <_>
      <internalNodes>
        0 -1 77788 -1.0635718703269958e-02</internalNodes>
      <leafValues>
        -5.8112102746963501e-01 2.2969851270318031e-02</leafValues></_>
    <_>
      <internalNodes>
        0 -1 78360 8.4925051778554916e-03</internalNodes>
      <leafValues>
        -5.0941318273544312e-02 2.7003911137580872e-01</leafValues></_>
    <_>
      <internalNodes>
        0 -1 23570 -2.5408625602722168e-02</internalNodes>
      <leafValues>
        3.1817144155502319e-01 -3.7871092557907104e-02</leafValues></_>
    <_>
      <internalNodes>
        0 -1 56354 -4.3154843151569366e-03</internalNodes>
      <leafValues>
        -5.7084429264068604e-01 2.2255498915910721e-02</leafValues></_>
    <_>
      <internalNodes>
        0 -1 69178 -1.8108932999894023e-03</internalNodes>
      <leafValues>
        1.9848272204399109e-01 -6.5257452428340912e-02</leafValues></_>
    <_>
      <internalNodes>
        0 -1 78070 2.7895679231733084e-03</internalNodes>
      <leafValues>
        3.8641244173049927e-02 -3.5670530796051025e-01</leafValues></_>
    <_>
      <internalNodes>
        0 -1 8316 4.2909305193461478e-04</internalNodes>
      <leafValues>
        8.2722410559654236e-02 -1.4936091005802155e-01</leafValues></_>
    <_>
      <internalNodes>
        0 -1 32970 1.8378321081399918e-02</internalNodes>
      <leafValues>
        -2.8441311791539192e-02 4.1650646924972534e-01</leafValues></_>
    <_>
      <internalNodes>
        0 -1 20005 3.3489796333014965e-03</internalNodes>
      <leafValues>
        -8.7421707808971405e-02 1.4112357795238495e-01</leafValues></_>
    <_>
      <internalNodes>
        0 -1 13893 -3.0254594981670380e-02</internalNodes>
      <leafValues>
        -8.2018291950225830e-01 1.7361743375658989e-02</leafValues></_>
    <_>
      <internalNodes>
        0 -1 13309 -2.0446009002625942e-03</internalNodes>
      <leafValues>
        1.9979700446128845e-01 -8.0044791102409363e-02</leafValues></_>
    <_>
      <internalNodes>
        0 -1 25218 -5.0682470202445984e-02</internalNodes>
      <leafValues>
        4.2042654752731323e-01 -2.4974184110760689e-02</leafValues></_>
    <_>
      <internalNodes>
        0 -1 72542 6.8497415632009506e-03</internalNodes>
      <leafValues>
        3.5284180194139481e-02 -3.6231678724288940e-01</leafValues></_>
    <_>
      <internalNodes>
        0 -1 61441 -4.4451835565268993e-03</internalNodes>
      <leafValues>
        -5.8392655849456787e-01 1.7041856423020363e-02</leafValues></_>
    <_>
      <internalNodes>
        0 -1 64531 5.9094117023050785e-04</internalNodes>
      <leafValues>
        -8.8347986340522766e-02 1.3947616517543793e-01</leafValues></_>
    <_>
      <internalNodes>
        0 -1 61105 -1.1627268046140671e-02</internalNodes>
      <leafValues>
        -5.2631032466888428e-01 2.8670117259025574e-02</leafValues></_>
    <_>
      <internalNodes>
        0 -1 24501 -6.6128041362389922e-04</internalNodes>
      <leafValues>
        1.6710910201072693e-01 -7.4934363365173340e-02</leafValues></_>
    <_>
      <internalNodes>
        0 -1 67502 2.5276821106672287e-02</internalNodes>
      <leafValues>
        -3.3710557967424393e-02 3.5943695902824402e-01</leafValues></_>
    <_>
      <internalNodes>
        0 -1 66659 5.9753390960395336e-03</internalNodes>
      <leafValues>
        1.0112756490707397e-01 -1.4260256290435791e-01</leafValues></_>
    <_>
      <internalNodes>
        0 -1 68063 8.5454538464546204e-02</internalNodes>
      <leafValues>
        3.0896941199898720e-02 -3.9064311981201172e-01</leafValues></_>
    <_>
      <internalNodes>
        0 -1 14241 2.7499757707118988e-02</internalNodes>
      <leafValues>
        1.8715236335992813e-02 -6.0560721158981323e-01</leafValues></_>
    <_>
      <internalNodes>
        0 -1 20861 -1.0954245924949646e-01</internalNodes>
      <leafValues>
        7.7437871694564819e-01 -1.7371712252497673e-02</leafValues></_>
    <_>
      <internalNodes>
        0 -1 49189 -7.1227748412638903e-04</internalNodes>
      <leafValues>
        1.6079178452491760e-01 -7.7494747936725616e-02</leafValues></_>
    <_>
      <internalNodes>
        0 -1 49189 -4.5175366103649139e-03</internalNodes>
      <leafValues>
        -5.5506253242492676e-01 2.4165753275156021e-02</leafValues></_>
    <_>
      <internalNodes>
        0 -1 20906 1.1506264097988605e-02</internalNodes>
      <leafValues>
        1.4079423621296883e-02 -6.5975075960159302e-01</leafValues></_>
    <_>
      <internalNodes>
        0 -1 71849 9.6984095871448517e-03</internalNodes>
      <leafValues>
        2.6195105165243149e-02 -4.4071584939956665e-01</leafValues></_>
    <_>
      <internalNodes>
        0 -1 77428 -7.4932719580829144e-03</internalNodes>
      <leafValues>
        2.5619727373123169e-01 -4.8407554626464844e-02</leafValues></_>
    <_>
      <internalNodes>
        0 -1 64106 -1.4725492801517248e-03</internalNodes>
      <leafValues>
        1.5335573256015778e-01 -7.9750508069992065e-02</leafValues></_>
    <_>
      <internalNodes>
        0 -1 64368 1.5437754336744547e-03</internalNodes>
      <leafValues>
        -8.4699511528015137e-02 1.8868619203567505e-01</leafValues></_>
    <_>
      <internalNodes>
        0 -1 67449 4.6032629907131195e-03</internalNodes>
      <leafValues>
        2.2606583312153816e-02 -6.4621120691299438e-01</leafValues></_>
    <_>
      <internalNodes>
        0 -1 4864 1.4946750598028302e-03</internalNodes>
      <leafValues>
        -8.8880412280559540e-02 1.3703015446662903e-01</leafValues></_>
    <_>
      <internalNodes>
        0 -1 6089 -4.5828684233129025e-03</internalNodes>
      <leafValues>
        -2.4685519933700562e-01 5.2475843578577042e-02</leafValues></_>
    <_>
      <internalNodes>
        0 -1 13919 2.2888835519552231e-02</internalNodes>
      <leafValues>
        5.6806560605764389e-02 -2.2364115715026855e-01</leafValues></_>
    <_>
      <internalNodes>
        0 -1 14026 -9.1507565230131149e-03</internalNodes>
      <leafValues>
        -3.1447187066078186e-01 4.1647601872682571e-02</leafValues></_>
    <_>
      <internalNodes>
        0 -1 4384 2.6553677162155509e-04</internalNodes>
      <leafValues>
        9.2609360814094543e-02 -1.3797648251056671e-01</leafValues></_>
    <_>
      <internalNodes>
        0 -1 73336 2.2926695644855499e-02</internalNodes>
      <leafValues>
        -2.8558088466525078e-02 4.3769481778144836e-01</leafValues></_>
    <_>
      <internalNodes>
        0 -1 59440 -7.9934652894735336e-03</internalNodes>
      <leafValues>
        1.7804676294326782e-01 -6.5908677875995636e-02</leafValues></_>
    <_>
      <internalNodes>
        0 -1 40060 -4.2913317680358887e-02</internalNodes>
      <leafValues>
        3.8319215178489685e-01 -3.3695086836814880e-02</leafValues></_>
    <_>
      <internalNodes>
        0 -1 46552 -1.3616258278489113e-02</internalNodes>
      <leafValues>
        2.8817191720008850e-01 -4.1475325822830200e-02</leafValues></_>
    <_>
      <internalNodes>
        0 -1 53208 -5.3313719108700752e-03</internalNodes>
      <leafValues>
        -4.3258902430534363e-01 3.1608607620000839e-02</leafValues></_>
    <_>
      <internalNodes>
        0 -1 56360 7.7087311074137688e-03</internalNodes>
      <leafValues>
        2.6697251945734024e-02 -4.5949807763099670e-01</leafValues></_>
    <_>
      <internalNodes>
        0 -1 61283 -1.8234902527183294e-03</internalNodes>
      <leafValues>
        1.8991796672344208e-01 -6.4988233149051666e-02</leafValues></_>
    <_>
      <internalNodes>
        0 -1 36378 -1.7301336629316211e-04</internalNodes>
      <leafValues>
        -1.1383978277444839e-01 1.0516314208507538e-01</leafValues></_>
    <_>
      <internalNodes>
        0 -1 67712 -1.0919773485511541e-03</internalNodes>
      <leafValues>
        1.4493325352668762e-01 -8.6721487343311310e-02</leafValues></_>
    <_>
      <internalNodes>
        0 -1 56514 -5.5546976625919342e-02</internalNodes>
      <leafValues>
        -5.5137389898300171e-01 2.5681503117084503e-02</leafValues></_>
    <_>
      <internalNodes>
        0 -1 60264 -1.6183104598894715e-03</internalNodes>
      <leafValues>
        1.6993378102779388e-01 -7.5262211263179779e-02</leafValues></_>
    <_>
      <internalNodes>
        0 -1 54581 6.5989745780825615e-04</internalNodes>
      <leafValues>
        -9.4082690775394440e-02 1.2606324255466461e-01</leafValues></_>
    <_>
      <internalNodes>
        0 -1 48846 -2.0196824334561825e-03</internalNodes>
      <leafValues>
        1.5913920104503632e-01 -8.1857234239578247e-02</leafValues></_>
    <_>
      <internalNodes>
        0 -1 49006 2.5047473609447479e-02</internalNodes>
      <leafValues>
        -2.4890089407563210e-02 4.9911186099052429e-01</leafValues></_>
    <_>
      <internalNodes>
        0 -1 54192 -7.3334523476660252e-03</internalNodes>
      <leafValues>
        -6.5181457996368408e-01 2.3746384307742119e-02</leafValues></_>
    <_>
      <internalNodes>
        0 -1 37541 -7.6946672052145004e-03</internalNodes>
      <leafValues>
        1.7723524570465088e-01 -7.1014933288097382e-02</leafValues></_>
    <_>
      <internalNodes>
        0 -1 53904 -6.7999931052327156e-03</internalNodes>
      <leafValues>
        -1.6208469867706299e-01 7.6105378568172455e-02</leafValues></_>
    <_>
      <internalNodes>
        0 -1 5752 -7.7559053897857666e-02</internalNodes>
      <leafValues>
        -6.2987256050109863e-01 1.9829493016004562e-02</leafValues></_>
    <_>
      <internalNodes>
        0 -1 37878 -9.8174689337611198e-03</internalNodes>
      <leafValues>
        -6.0238546133041382e-01 1.7530679702758789e-02</leafValues></_>
    <_>
      <internalNodes>
        0 -1 68100 7.9384178388863802e-04</internalNodes>
      <leafValues>
        -7.7538251876831055e-02 1.6147668659687042e-01</leafValues></_>
    <_>
      <internalNodes>
        0 -1 36662 4.2007863521575928e-03</internalNodes>
      <leafValues>
        2.9183164238929749e-02 -4.6822783350944519e-01</leafValues></_>
    <_>
      <internalNodes>
        0 -1 69012 -1.0906966403126717e-02</internalNodes>
      <leafValues>
        3.5850992798805237e-01 -3.4449052065610886e-02</leafValues></_>
    <_>
      <internalNodes>
        0 -1 78286 3.6084494786337018e-04</internalNodes>
      <leafValues>
        7.9650178551673889e-02 -1.4557014405727386e-01</leafValues></_>
    <_>
      <internalNodes>
        0 -1 70968 9.6350233070552349e-04</internalNodes>
      <leafValues>
        -7.0317424833774567e-02 1.6632077097892761e-01</leafValues></_>
    <_>
      <internalNodes>
        0 -1 24519 1.3522096909582615e-02</internalNodes>
      <leafValues>
        -3.7253525108098984e-02 3.2641890645027161e-01</leafValues></_>
    <_>
      <internalNodes>
        0 -1 14882 5.2248857915401459e-02</internalNodes>
      <leafValues>
        4.9348708242177963e-02 -2.5432434678077698e-01</leafValues></_>
    <_>
      <internalNodes>
        0 -1 78376 2.8356801718473434e-02</internalNodes>
      <leafValues>
        -2.6209089905023575e-02 4.7650128602981567e-01</leafValues></_>
    <_>
      <internalNodes>
        0 -1 78285 5.9916768223047256e-03</internalNodes>
      <leafValues>
        2.7054123580455780e-02 -4.9100604653358459e-01</leafValues></_>
    <_>
      <internalNodes>
        0 -1 36707 -3.0966161284595728e-03</internalNodes>
      <leafValues>
        1.8175731599330902e-01 -6.3310176134109497e-02</leafValues></_>
    <_>
      <internalNodes>
        0 -1 56417 -1.0013372637331486e-02</internalNodes>
      <leafValues>
        -2.5121209025382996e-01 5.1885012537240982e-02</leafValues></_>
    <_>
      <internalNodes>
        0 -1 75820 -3.2157212262973189e-04</internalNodes>
      <leafValues>
        -1.3195483386516571e-01 8.7021179497241974e-02</leafValues></_>
    <_>
      <internalNodes>
        0 -1 45131 -1.3287847861647606e-02</internalNodes>
      <leafValues>
        3.3527463674545288e-01 -3.6487206816673279e-02</leafValues></_>
    <_>
      <internalNodes>
        0 -1 20608 2.2840899229049683e-01</internalNodes>
      <leafValues>
        1.8580392003059387e-02 -8.0910420417785645e-01</leafValues></_>
    <_>
      <internalNodes>
        0 -1 49803 -2.1828562021255493e-02</internalNodes>
      <leafValues>
        7.2594356536865234e-01 -1.9556291401386261e-02</leafValues></_>
    <_>
      <internalNodes>
        0 -1 42907 -1.4339355751872063e-02</internalNodes>
      <leafValues>
        -7.9127955436706543e-01 1.8283335492014885e-02</leafValues></_>
    <_>
      <internalNodes>
        0 -1 20883 -1.7336938763037324e-03</internalNodes>
      <leafValues>
        1.8327651917934418e-01 -6.6406793892383575e-02</leafValues></_>
    <_>
      <internalNodes>
        0 -1 14319 -7.3554535629227757e-04</internalNodes>
      <leafValues>
        1.4174103736877441e-01 -8.9723922312259674e-02</leafValues></_>
    <_>
      <internalNodes>
        0 -1 14606 6.8674096837639809e-04</internalNodes>
      <leafValues>
        8.0345913767814636e-02 -1.7374634742736816e-01</leafValues></_>
    <_>
      <internalNodes>
        0 -1 26511 -4.1464861482381821e-02</internalNodes>
      <leafValues>
        3.7843802571296692e-01 -3.5535171627998352e-02</leafValues></_>
    <_>
      <internalNodes>
        0 -1 12166 -2.0376853644847870e-01</internalNodes>
      <leafValues>
        6.8628990650177002e-01 -1.5509101562201977e-02</leafValues></_>
    <_>
      <internalNodes>
        0 -1 48607 1.5989501029253006e-02</internalNodes>
      <leafValues>
        3.3002480864524841e-02 -4.0140584111213684e-01</leafValues></_>
    <_>
      <internalNodes>
        0 -1 40698 2.3990502953529358e-01</internalNodes>
      <leafValues>
        -3.1406208872795105e-02 4.0196162462234497e-01</leafValues></_>
    <_>
      <internalNodes>
        0 -1 53950 -1.1404072865843773e-03</internalNodes>
      <leafValues>
        1.1733913421630859e-01 -1.0894244909286499e-01</leafValues></_>
    <_>
      <internalNodes>
        0 -1 44832 -1.6632926417514682e-03</internalNodes>
      <leafValues>
        1.5122918784618378e-01 -7.9725675284862518e-02</leafValues></_>
    <_>
      <internalNodes>
        0 -1 39502 1.2822845019400120e-03</internalNodes>
      <leafValues>
        -6.5580427646636963e-02 2.1610839664936066e-01</leafValues></_></weakClassifiers></stage9>
</opencv_storage>
