<?xml version="1.0"?>
<opencv_storage>
<stage0>
  <maxWeakCount>54</maxWeakCount>
  <stageThreshold>-7.2358411550521851e-01</stageThreshold>
  <weakClassifiers>
    <_>
      <internalNodes>
        0 -1 57844 1.4342388603836298e-03</internalNodes>
      <leafValues>
        1.6654330492019653e-01 5.4814106225967407e-01</leafValues></_>
    <_>
      <internalNodes>
        0 -1 67498 1.8838081741705537e-03</internalNodes>
      <leafValues>
        -1.4417026937007904e-01 2.7066543698310852e-01</leafValues></_>
    <_>
      <internalNodes>
        0 -1 58556 9.2654826585203409e-04</internalNodes>
      <leafValues>
        -1.2555557489395142e-01 3.3980941772460938e-01</leafValues></_>
    <_>
      <internalNodes>
        0 -1 64530 5.2399386186152697e-04</internalNodes>
      <leafValues>
        -1.9191443920135498e-01 1.8322011828422546e-01</leafValues></_>
    <_>
      <internalNodes>
        0 -1 53207 6.5208115847781301e-04</internalNodes>
      <leafValues>
        -1.1434055864810944e-01 2.8500890731811523e-01</leafValues></_>
    <_>
      <internalNodes>
        0 -1 61249 -4.7595007345080376e-03</internalNodes>
      <leafValues>
        -6.4856034517288208e-01 5.2221223711967468e-02</leafValues></_>
    <_>
      <internalNodes>
        0 -1 47250 2.4239459889940917e-04</internalNodes>
      <leafValues>
        -1.5229456126689911e-01 2.1089662611484528e-01</leafValues></_>
    <_>
      <internalNodes>
        0 -1 28775 6.9938023807480931e-04</internalNodes>
      <leafValues>
        -1.3965867459774017e-01 2.2582712769508362e-01</leafValues></_>
    <_>
      <internalNodes>
        0 -1 76744 4.0938992053270340e-02</internalNodes>
      <leafValues>
        -7.7519245445728302e-02 4.2033317685127258e-01</leafValues></_>
    <_>
      <internalNodes>
        0 -1 78063 1.1009075678884983e-02</internalNodes>
      <leafValues>
        -8.7447509169578552e-02 3.5062897205352783e-01</leafValues></_>
    <_>
      <internalNodes>
        0 -1 59591 -1.1839328799396753e-03</internalNodes>
      <leafValues>
        2.0554247498512268e-01 -1.4332750439643860e-01</leafValues></_>
    <_>
      <internalNodes>
        0 -1 69176 4.0666968561708927e-04</internalNodes>
      <leafValues>
        -1.1479194462299347e-01 2.4234084784984589e-01</leafValues></_>
    <_>
      <internalNodes>
        0 -1 64730 -5.2767028100788593e-03</internalNodes>
      <leafValues>
        -6.9559913873672485e-01 4.2316425591707230e-02</leafValues></_>
    <_>
      <internalNodes>
        0 -1 39504 8.5621408652514219e-04</internalNodes>
      <leafValues>
        -1.3443027436733246e-01 2.0606932044029236e-01</leafValues></_>
    <_>
      <internalNodes>
        0 -1 50968 3.1407631468027830e-03</internalNodes>
      <leafValues>
        -1.1888613551855087e-01 2.2519995272159576e-01</leafValues></_>
    <_>
      <internalNodes>
        0 -1 13779 -2.0261950790882111e-02</internalNodes>
      <leafValues>
        2.2318714857101440e-01 -1.1678547412157059e-01</leafValues></_>
    <_>
      <internalNodes>
        0 -1 45909 1.7055096104741096e-03</internalNodes>
      <leafValues>
        -1.4109672605991364e-01 1.9888012111186981e-01</leafValues></_>
    <_>
      <internalNodes>
        0 -1 70053 5.2847310900688171e-02</internalNodes>
      <leafValues>
        -6.1702098697423935e-02 4.1130185127258301e-01</leafValues></_>
    <_>
      <internalNodes>
        0 -1 74998 2.0487797446548939e-03</internalNodes>
      <leafValues>
        -1.2327051907777786e-01 2.1377678215503693e-01</leafValues></_>
    <_>
      <internalNodes>
        0 -1 34945 3.3477351069450378e-02</internalNodes>
      <leafValues>
        -6.2168594449758530e-02 3.6587202548980713e-01</leafValues></_>
    <_>
      <internalNodes>
        0 -1 70970 4.3558387551456690e-04</internalNodes>
      <leafValues>
        -1.1725946515798569e-01 2.0813836157321930e-01</leafValues></_>
    <_>
      <internalNodes>
        0 -1 14616 -2.3124213330447674e-03</internalNodes>
      <leafValues>
        2.1966534852981567e-01 -1.1538115143775940e-01</leafValues></_>
    <_>
      <internalNodes>
        0 -1 73108 -7.6187974773347378e-03</internalNodes>
      <leafValues>
        -4.0933957695960999e-01 5.5387154221534729e-02</leafValues></_>
    <_>
      <internalNodes>
        0 -1 75056 -3.9330548606812954e-03</internalNodes>
      <leafValues>
        1.9527184963226318e-01 -1.2784229218959808e-01</leafValues></_>
    <_>
      <internalNodes>
        0 -1 65076 3.0732718296349049e-03</internalNodes>
      <leafValues>
        -1.0119094699621201e-01 2.3714867234230042e-01</leafValues></_>
    <_>
      <internalNodes>
        0 -1 61787 -7.1081850910559297e-04</internalNodes>
      <leafValues>
        2.2756358981132507e-01 -1.0993337631225586e-01</leafValues></_>
    <_>
      <internalNodes>
        0 -1 61794 8.6909357924014330e-04</internalNodes>
      <leafValues>
        -1.2906713783740997e-01 2.1966014802455902e-01</leafValues></_>
    <_>
      <internalNodes>
        0 -1 33815 1.2956050224602222e-02</internalNodes>
      <leafValues>
        4.3788831681013107e-02 -4.7801032662391663e-01</leafValues></_>
    <_>
      <internalNodes>
        0 -1 57592 -4.3942444026470184e-03</internalNodes>
      <leafValues>
        -4.7680753469467163e-01 4.8289548605680466e-02</leafValues></_>
    <_>
      <internalNodes>
        0 -1 57952 -1.1392511660233140e-03</internalNodes>
      <leafValues>
        2.6484090089797974e-01 -8.4422782063484192e-02</leafValues></_>
    <_>
      <internalNodes>
        0 -1 57198 -1.2972658500075340e-02</internalNodes>
      <leafValues>
        -5.6822121143341064e-01 4.4597797095775604e-02</leafValues></_>
    <_>
      <internalNodes>
        0 -1 28260 2.5735810399055481e-02</internalNodes>
      <leafValues>
        -6.7003272473812103e-02 3.4043309092521667e-01</leafValues></_>
    <_>
      <internalNodes>
        0 -1 12203 -4.0301112458109856e-03</internalNodes>
      <leafValues>
        2.1845433115959167e-01 -1.0736326873302460e-01</leafValues></_>
    <_>
      <internalNodes>
        0 -1 12962 1.1007998837158084e-03</internalNodes>
      <leafValues>
        -1.3018609583377838e-01 2.6138082146644592e-01</leafValues></_>
    <_>
      <internalNodes>
        0 -1 74442 3.1847152858972549e-03</internalNodes>
      <leafValues>
        -9.8148897290229797e-02 2.3228915035724640e-01</leafValues></_>
    <_>
      <internalNodes>
        0 -1 65536 -5.4288459941744804e-03</internalNodes>
      <leafValues>
        -8.3230125904083252e-01 2.7719873934984207e-02</leafValues></_>
    <_>
      <internalNodes>
        0 -1 27040 -2.9313063714653254e-03</internalNodes>
      <leafValues>
        2.9542127251625061e-01 -9.0979814529418945e-02</leafValues></_>
    <_>
      <internalNodes>
        0 -1 51266 -5.0838151946663857e-04</internalNodes>
      <leafValues>
        1.8695828318595886e-01 -1.2421112507581711e-01</leafValues></_>
    <_>
      <internalNodes>
        0 -1 71088 -9.3988049775362015e-03</internalNodes>
      <leafValues>
        -3.3732908964157104e-01 6.6137336194515228e-02</leafValues></_>
    <_>
      <internalNodes>
        0 -1 65675 2.1932921372354031e-03</internalNodes>
      <leafValues>
        -8.3925150334835052e-02 3.1780245900154114e-01</leafValues></_>
    <_>
      <internalNodes>
        0 -1 58458 3.0293366871774197e-03</internalNodes>
      <leafValues>
        -1.1155892908573151e-01 2.5202971696853638e-01</leafValues></_>
    <_>
      <internalNodes>
        0 -1 62285 -1.5280743828043342e-03</internalNodes>
      <leafValues>
        2.2787031531333923e-01 -1.0574717074632645e-01</leafValues></_>
    <_>
      <internalNodes>
        0 -1 36278 -4.4878283515572548e-03</internalNodes>
      <leafValues>
        2.2669027745723724e-01 -1.0288348048925400e-01</leafValues></_>
    <_>
      <internalNodes>
        0 -1 47247 4.2721349745988846e-04</internalNodes>
      <leafValues>
        -1.2116622924804688e-01 2.0634394884109497e-01</leafValues></_>
    <_>
      <internalNodes>
        0 -1 2728 -3.3699173945933580e-03</internalNodes>
      <leafValues>
        -5.5886763334274292e-01 4.5912168920040131e-02</leafValues></_>
    <_>
      <internalNodes>
        0 -1 73393 1.0196102084591985e-03</internalNodes>
      <leafValues>
        -1.3199922442436218e-01 1.9189816713333130e-01</leafValues></_>
    <_>
      <internalNodes>
        0 -1 28 4.9600359052419662e-02</internalNodes>
      <leafValues>
        -3.1700424849987030e-02 7.7831435203552246e-01</leafValues></_>
    <_>
      <internalNodes>
        0 -1 70697 8.8180042803287506e-04</internalNodes>
      <leafValues>
        -1.2089499086141586e-01 1.9824744760990143e-01</leafValues></_>
    <_>
      <internalNodes>
        0 -1 2737 -1.3949897140264511e-02</internalNodes>
      <leafValues>
        5.0721848011016846e-01 -4.6117570251226425e-02</leafValues></_>
    <_>
      <internalNodes>
        0 -1 53701 1.5781234251335263e-03</internalNodes>
      <leafValues>
        -1.0297091305255890e-01 2.3153647780418396e-01</leafValues></_>
    <_>
      <internalNodes>
        0 -1 64732 3.3236944582313299e-03</internalNodes>
      <leafValues>
        4.3488740921020508e-02 -5.5534774065017700e-01</leafValues></_>
    <_>
      <internalNodes>
        0 -1 19639 2.0985361188650131e-03</internalNodes>
      <leafValues>
        -1.1409994959831238e-01 2.0517943799495697e-01</leafValues></_>
    <_>
      <internalNodes>
        0 -1 64898 4.2870559263974428e-04</internalNodes>
      <leafValues>
        -1.1313778162002563e-01 2.0793023705482483e-01</leafValues></_>
    <_>
      <internalNodes>
        0 -1 61285 1.4818060444667935e-03</internalNodes>
      <leafValues>
        -1.0409056395292282e-01 2.2862021625041962e-01</leafValues></_></weakClassifiers></stage0>
</opencv_storage>
