<?xml version="1.0"?>
<opencv_storage>
<stage6>
  <maxWeakCount>100</maxWeakCount>
  <stageThreshold>-5.9116131067276001e-01</stageThreshold>
  <weakClassifiers>
    <_>
      <internalNodes>
        0 -1 76576 -8.4188836626708508e-04</internalNodes>
      <leafValues>
        4.6942290663719177e-01 2.3066926002502441e-01</leafValues></_>
    <_>
      <internalNodes>
        0 -1 50605 -3.4146560356020927e-03</internalNodes>
      <leafValues>
        2.3984813690185547e-01 -5.8980382978916168e-02</leafValues></_>
    <_>
      <internalNodes>
        0 -1 44817 -2.1606241352856159e-03</internalNodes>
      <leafValues>
        2.4930247664451599e-01 -6.4507476985454559e-02</leafValues></_>
    <_>
      <internalNodes>
        0 -1 44926 -7.9832749906927347e-04</internalNodes>
      <leafValues>
        1.8768696486949921e-01 -1.0777467489242554e-01</leafValues></_>
    <_>
      <internalNodes>
        0 -1 64933 -2.0974278450012207e-03</internalNodes>
      <leafValues>
        1.6457322239875793e-01 -1.1533500254154205e-01</leafValues></_>
    <_>
      <internalNodes>
        0 -1 69369 1.5317300334572792e-02</internalNodes>
      <leafValues>
        -5.7907819747924805e-02 2.6545700430870056e-01</leafValues></_>
    <_>
      <internalNodes>
        0 -1 64933 2.4423440918326378e-03</internalNodes>
      <leafValues>
        -7.6785854995250702e-02 2.0829248428344727e-01</leafValues></_>
    <_>
      <internalNodes>
        0 -1 70804 1.7588958144187927e-03</internalNodes>
      <leafValues>
        -9.1995179653167725e-02 1.6917255520820618e-01</leafValues></_>
    <_>
      <internalNodes>
        0 -1 49244 -2.4357162415981293e-02</internalNodes>
      <leafValues>
        -3.1886181235313416e-01 4.5015431940555573e-02</leafValues></_>
    <_>
      <internalNodes>
        0 -1 68104 -3.3871973864734173e-03</internalNodes>
      <leafValues>
        -4.3244129419326782e-01 3.1981352716684341e-02</leafValues></_>
    <_>
      <internalNodes>
        0 -1 52402 5.2064787596464157e-02</internalNodes>
      <leafValues>
        2.6069242507219315e-02 -5.1458925008773804e-01</leafValues></_>
    <_>
      <internalNodes>
        0 -1 57979 -3.5745414788834751e-04</internalNodes>
      <leafValues>
        1.1227997392416000e-01 -1.2126186490058899e-01</leafValues></_>
    <_>
      <internalNodes>
        0 -1 74501 4.4145928695797920e-03</internalNodes>
      <leafValues>
        -7.6740905642509460e-02 1.7965370416641235e-01</leafValues></_>
    <_>
      <internalNodes>
        0 -1 51813 -4.2918700724840164e-02</internalNodes>
      <leafValues>
        -2.6214468479156494e-01 5.7608466595411301e-02</leafValues></_>
    <_>
      <internalNodes>
        0 -1 48257 9.9846441298723221e-04</internalNodes>
      <leafValues>
        -9.1396383941173553e-02 1.6811530292034149e-01</leafValues></_>
    <_>
      <internalNodes>
        0 -1 70132 5.4917134344577789e-02</internalNodes>
      <leafValues>
        -2.5505840778350830e-02 5.1774871349334717e-01</leafValues></_>
    <_>
      <internalNodes>
        0 -1 48502 2.4493958335369825e-03</internalNodes>
      <leafValues>
        4.7014251351356506e-02 -3.0960822105407715e-01</leafValues></_>
    <_>
      <internalNodes>
        0 -1 33203 2.4827523157000542e-03</internalNodes>
      <leafValues>
        -6.7097231745719910e-02 1.9932128489017487e-01</leafValues></_>
    <_>
      <internalNodes>
        0 -1 9665 1.2491000816226006e-02</internalNodes>
      <leafValues>
        -3.3510655164718628e-02 3.7582775950431824e-01</leafValues></_>
    <_>
      <internalNodes>
        0 -1 55726 -3.9069182239472866e-03</internalNodes>
      <leafValues>
        -3.3331677317619324e-01 4.3522614985704422e-02</leafValues></_>
    <_>
      <internalNodes>
        0 -1 78197 2.8434870764613152e-03</internalNodes>
      <leafValues>
        4.6119194477796555e-02 -2.9180401563644409e-01</leafValues></_>
    <_>
      <internalNodes>
        0 -1 7605 -1.6945227980613708e-03</internalNodes>
      <leafValues>
        -2.0900218188762665e-01 6.0261502861976624e-02</leafValues></_>
    <_>
      <internalNodes>
        0 -1 68952 -6.3362182117998600e-03</internalNodes>
      <leafValues>
        -7.7613204717636108e-01 1.6254780814051628e-02</leafValues></_>
    <_>
      <internalNodes>
        0 -1 39472 -3.7373967468738556e-02</internalNodes>
      <leafValues>
        -2.5742265582084656e-01 4.7383148223161697e-02</leafValues></_>
    <_>
      <internalNodes>
        0 -1 12610 -4.6766325831413269e-03</internalNodes>
      <leafValues>
        2.1475166082382202e-01 -6.2925331294536591e-02</leafValues></_>
    <_>
      <internalNodes>
        0 -1 77729 1.1211261153221130e-02</internalNodes>
      <leafValues>
        -2.5471856817603111e-02 4.7091570496559143e-01</leafValues></_>
    <_>
      <internalNodes>
        0 -1 19984 -2.6945611461997032e-03</internalNodes>
      <leafValues>
        -2.6930573582649231e-01 4.9762632697820663e-02</leafValues></_>
    <_>
      <internalNodes>
        0 -1 5997 -2.5485742837190628e-02</internalNodes>
      <leafValues>
        4.4631692767143250e-01 -3.2436110079288483e-02</leafValues></_>
    <_>
      <internalNodes>
        0 -1 64537 8.4093064069747925e-03</internalNodes>
      <leafValues>
        3.8405783474445343e-02 -3.9963662624359131e-01</leafValues></_>
    <_>
      <internalNodes>
        0 -1 60794 -2.6240455918014050e-03</internalNodes>
      <leafValues>
        1.9445246458053589e-01 -8.2231037318706512e-02</leafValues></_>
    <_>
      <internalNodes>
        0 -1 24004 -7.5853909947909415e-05</internalNodes>
      <leafValues>
        1.3122014701366425e-01 -1.0932279378175735e-01</leafValues></_>
    <_>
      <internalNodes>
        0 -1 55471 -3.9499402046203613e-02</internalNodes>
      <leafValues>
        2.9950141906738281e-01 -4.1704073548316956e-02</leafValues></_>
    <_>
      <internalNodes>
        0 -1 25270 -1.3382518291473389e-01</internalNodes>
      <leafValues>
        -2.7081948518753052e-01 5.9454280883073807e-02</leafValues></_>
    <_>
      <internalNodes>
        0 -1 78261 -4.3327012099325657e-03</internalNodes>
      <leafValues>
        -5.4758954048156738e-01 2.4561161175370216e-02</leafValues></_>
    <_>
      <internalNodes>
        0 -1 60790 -6.7559228045865893e-04</internalNodes>
      <leafValues>
        1.4524750411510468e-01 -9.5515012741088867e-02</leafValues></_>
    <_>
      <internalNodes>
        0 -1 11594 6.4208656549453735e-02</internalNodes>
      <leafValues>
        -3.6560546606779099e-02 3.8094085454940796e-01</leafValues></_>
    <_>
      <internalNodes>
        0 -1 60790 -5.9533333405852318e-03</internalNodes>
      <leafValues>
        -5.7083404064178467e-01 2.8002381324768066e-02</leafValues></_>
    <_>
      <internalNodes>
        0 -1 73430 -1.3546035625040531e-03</internalNodes>
      <leafValues>
        1.7582572996616364e-01 -7.9743534326553345e-02</leafValues></_>
    <_>
      <internalNodes>
        0 -1 54279 2.1563190966844559e-02</internalNodes>
      <leafValues>
        6.7882053554058075e-02 -2.2641067206859589e-01</leafValues></_>
    <_>
      <internalNodes>
        0 -1 62327 9.6026924438774586e-04</internalNodes>
      <leafValues>
        -9.6007533371448517e-02 1.7146195471286774e-01</leafValues></_>
    <_>
      <internalNodes>
        0 -1 45082 -3.9613940753042698e-03</internalNodes>
      <leafValues>
        1.7890055477619171e-01 -1.0907401889562607e-01</leafValues></_>
    <_>
      <internalNodes>
        0 -1 33821 -1.4646085910499096e-03</internalNodes>
      <leafValues>
        1.5650516748428345e-01 -9.0435668826103210e-02</leafValues></_>
    <_>
      <internalNodes>
        0 -1 58456 1.0378826409578323e-03</internalNodes>
      <leafValues>
        -9.6432179212570190e-02 1.5144135057926178e-01</leafValues></_>
    <_>
      <internalNodes>
        0 -1 21574 2.7186509221792221e-02</internalNodes>
      <leafValues>
        2.4878285825252533e-02 -5.6663739681243896e-01</leafValues></_>
    <_>
      <internalNodes>
        0 -1 36642 -2.2121751308441162e-01</internalNodes>
      <leafValues>
        4.2593991756439209e-01 -3.4654974937438965e-02</leafValues></_>
    <_>
      <internalNodes>
        0 -1 39647 -7.4968426488339901e-03</internalNodes>
      <leafValues>
        2.8267550468444824e-01 -4.3762765824794769e-02</leafValues></_>
    <_>
      <internalNodes>
        0 -1 55383 1.3679858297109604e-02</internalNodes>
      <leafValues>
        4.4165872037410736e-02 -3.2397320866584778e-01</leafValues></_>
    <_>
      <internalNodes>
        0 -1 45869 -3.0402389820665121e-03</internalNodes>
      <leafValues>
        1.1808101832866669e-01 -1.1518862843513489e-01</leafValues></_>
    <_>
      <internalNodes>
        0 -1 47963 -2.4812314659357071e-03</internalNodes>
      <leafValues>
        2.4175871908664703e-01 -5.9103295207023621e-02</leafValues></_>
    <_>
      <internalNodes>
        0 -1 57157 -4.1660005226731300e-03</internalNodes>
      <leafValues>
        -5.2069145441055298e-01 2.7115497738122940e-02</leafValues></_>
    <_>
      <internalNodes>
        0 -1 40761 4.3351058848202229e-03</internalNodes>
      <leafValues>
        -6.4970344305038452e-02 1.9681015610694885e-01</leafValues></_>
    <_>
      <internalNodes>
        0 -1 28383 -6.6687044454738498e-04</internalNodes>
      <leafValues>
        1.2973310053348541e-01 -1.0214437544345856e-01</leafValues></_>
    <_>
      <internalNodes>
        0 -1 27830 1.2961397878825665e-02</internalNodes>
      <leafValues>
        3.2580789178609848e-02 -4.0602469444274902e-01</leafValues></_>
    <_>
      <internalNodes>
        0 -1 39436 8.9703071862459183e-03</internalNodes>
      <leafValues>
        -8.7238341569900513e-02 1.6672086715698242e-01</leafValues></_>
    <_>
      <internalNodes>
        0 -1 58402 -2.8219008818268776e-03</internalNodes>
      <leafValues>
        1.9263204932212830e-01 -8.2622356712818146e-02</leafValues></_>
    <_>
      <internalNodes>
        0 -1 65728 8.5003934800624847e-03</internalNodes>
      <leafValues>
        -3.7553969770669937e-02 3.3244600892066956e-01</leafValues></_>
    <_>
      <internalNodes>
        0 -1 58508 3.6778126377612352e-03</internalNodes>
      <leafValues>
        3.3608667552471161e-02 -4.7252139449119568e-01</leafValues></_>
    <_>
      <internalNodes>
        0 -1 52332 1.3136754278093576e-03</internalNodes>
      <leafValues>
        -7.3967121541500092e-02 1.8375200033187866e-01</leafValues></_>
    <_>
      <internalNodes>
        0 -1 73503 -1.3952407753095031e-03</internalNodes>
      <leafValues>
        -2.0674937963485718e-01 6.8683318793773651e-02</leafValues></_>
    <_>
      <internalNodes>
        0 -1 45067 -3.1800039112567902e-02</internalNodes>
      <leafValues>
        -6.1913609504699707e-01 1.9690256565809250e-02</leafValues></_>
    <_>
      <internalNodes>
        0 -1 57728 -1.0439522564411163e-01</internalNodes>
      <leafValues>
        -7.2585910558700562e-01 1.7104523256421089e-02</leafValues></_>
    <_>
      <internalNodes>
        0 -1 52333 -1.5805469593033195e-03</internalNodes>
      <leafValues>
        1.6469998657703400e-01 -7.9635389149188995e-02</leafValues></_>
    <_>
      <internalNodes>
        0 -1 45421 7.4331849813461304e-02</internalNodes>
      <leafValues>
        2.8351183980703354e-02 -5.3647613525390625e-01</leafValues></_>
    <_>
      <internalNodes>
        0 -1 29275 3.5190908238291740e-03</internalNodes>
      <leafValues>
        -8.3321020007133484e-02 1.6577588021755219e-01</leafValues></_>
    <_>
      <internalNodes>
        0 -1 49818 -1.2986304238438606e-02</internalNodes>
      <leafValues>
        3.5847195982933044e-01 -3.8684371858835220e-02</leafValues></_>
    <_>
      <internalNodes>
        0 -1 32379 -3.7888430058956146e-02</internalNodes>
      <leafValues>
        4.4517433643341064e-01 -3.2760750502347946e-02</leafValues></_>
    <_>
      <internalNodes>
        0 -1 15448 3.9188261143863201e-04</internalNodes>
      <leafValues>
        9.5731087028980255e-02 -1.5230594575405121e-01</leafValues></_>
    <_>
      <internalNodes>
        0 -1 16209 -5.7527525350451469e-03</internalNodes>
      <leafValues>
        1.7575524747371674e-01 -7.9706981778144836e-02</leafValues></_>
    <_>
      <internalNodes>
        0 -1 59654 -6.1201695352792740e-03</internalNodes>
      <leafValues>
        -6.3816839456558228e-01 2.2722918540239334e-02</leafValues></_>
    <_>
      <internalNodes>
        0 -1 77485 -5.5934232659637928e-04</internalNodes>
      <leafValues>
        1.3483293354511261e-01 -1.0633248835802078e-01</leafValues></_>
    <_>
      <internalNodes>
        0 -1 9825 1.7991371452808380e-02</internalNodes>
      <leafValues>
        2.4280482903122902e-02 -5.4741162061691284e-01</leafValues></_>
    <_>
      <internalNodes>
        0 -1 69815 2.7438543736934662e-02</internalNodes>
      <leafValues>
        3.1877730041742325e-02 -4.0045723319053650e-01</leafValues></_>
    <_>
      <internalNodes>
        0 -1 30088 -1.1108752340078354e-01</internalNodes>
      <leafValues>
        -2.9309222102165222e-01 4.3872427195310593e-02</leafValues></_>
    <_>
      <internalNodes>
        0 -1 15181 -1.8294979631900787e-01</internalNodes>
      <leafValues>
        5.4310530424118042e-01 -2.5823373347520828e-02</leafValues></_>
    <_>
      <internalNodes>
        0 -1 58125 -2.2050006373319775e-04</internalNodes>
      <leafValues>
        1.1435083299875259e-01 -1.1943326890468597e-01</leafValues></_>
    <_>
      <internalNodes>
        0 -1 39619 1.7189292702823877e-03</internalNodes>
      <leafValues>
        6.8545244634151459e-02 -2.0793351531028748e-01</leafValues></_>
    <_>
      <internalNodes>
        0 -1 37957 2.9050543904304504e-02</internalNodes>
      <leafValues>
        1.6204325482249260e-02 -8.5625165700912476e-01</leafValues></_>
    <_>
      <internalNodes>
        0 -1 58349 -2.0309586543589830e-03</internalNodes>
      <leafValues>
        2.2803305089473724e-01 -6.6272020339965820e-02</leafValues></_>
    <_>
      <internalNodes>
        0 -1 58448 2.0239567384123802e-03</internalNodes>
      <leafValues>
        1.0330259799957275e-01 -1.4183336496353149e-01</leafValues></_>
    <_>
      <internalNodes>
        0 -1 62318 7.8696385025978088e-04</internalNodes>
      <leafValues>
        -9.5215879380702972e-02 2.0335683226585388e-01</leafValues></_>
    <_>
      <internalNodes>
        0 -1 39350 -1.4010028680786490e-03</internalNodes>
      <leafValues>
        1.6281403601169586e-01 -8.9498303830623627e-02</leafValues></_>
    <_>
      <internalNodes>
        0 -1 32413 4.5677311718463898e-02</internalNodes>
      <leafValues>
        -3.7196490913629532e-02 4.5129230618476868e-01</leafValues></_>
    <_>
      <internalNodes>
        0 -1 57203 3.8723903708159924e-03</internalNodes>
      <leafValues>
        -1.0099339485168457e-01 1.5560208261013031e-01</leafValues></_>
    <_>
      <internalNodes>
        0 -1 73048 6.0840651713078842e-05</internalNodes>
      <leafValues>
        -1.1727992445230484e-01 1.3285033404827118e-01</leafValues></_>
    <_>
      <internalNodes>
        0 -1 70617 -2.0937729626893997e-02</internalNodes>
      <leafValues>
        2.6342967152595520e-01 -6.9448985159397125e-02</leafValues></_>
    <_>
      <internalNodes>
        0 -1 61248 -4.2613261030055583e-04</internalNodes>
      <leafValues>
        1.6509990394115448e-01 -9.6244908869266510e-02</leafValues></_>
    <_>
      <internalNodes>
        0 -1 73692 -3.8370830006897449e-03</internalNodes>
      <leafValues>
        -2.4778722226619720e-01 6.7144304513931274e-02</leafValues></_>
    <_>
      <internalNodes>
        0 -1 68344 2.1958854049444199e-03</internalNodes>
      <leafValues>
        -7.9230293631553650e-02 1.9095976650714874e-01</leafValues></_>
    <_>
      <internalNodes>
        0 -1 68366 -4.1717062704265118e-03</internalNodes>
      <leafValues>
        2.2195607423782349e-01 -7.2363324463367462e-02</leafValues></_>
    <_>
      <internalNodes>
        0 -1 47250 -1.0633105412125587e-03</internalNodes>
      <leafValues>
        2.0095458626747131e-01 -7.9220831394195557e-02</leafValues></_>
    <_>
      <internalNodes>
        0 -1 56919 9.3047842383384705e-03</internalNodes>
      <leafValues>
        3.1669180840253830e-02 -5.1163762807846069e-01</leafValues></_>
    <_>
      <internalNodes>
        0 -1 47255 1.3022853061556816e-02</internalNodes>
      <leafValues>
        2.5986373424530029e-02 -5.5757766962051392e-01</leafValues></_>
    <_>
      <internalNodes>
        0 -1 72683 -4.9457689747214317e-03</internalNodes>
      <leafValues>
        -6.4958840608596802e-01 2.2159401327371597e-02</leafValues></_>
    <_>
      <internalNodes>
        0 -1 50846 4.4801904004998505e-04</internalNodes>
      <leafValues>
        -9.4430752098560333e-02 1.5981534123420715e-01</leafValues></_>
    <_>
      <internalNodes>
        0 -1 20003 5.4570552892982960e-03</internalNodes>
      <leafValues>
        -6.4927496016025543e-02 2.1896702051162720e-01</leafValues></_>
    <_>
      <internalNodes>
        0 -1 64337 1.4919518493115902e-02</internalNodes>
      <leafValues>
        2.8724854812026024e-02 -5.8382612466812134e-01</leafValues></_>
    <_>
      <internalNodes>
        0 -1 55205 -4.4410163536667824e-03</internalNodes>
      <leafValues>
        1.3521251082420349e-01 -1.1024444550275803e-01</leafValues></_>
    <_>
      <internalNodes>
        0 -1 71802 4.9778014421463013e-02</internalNodes>
      <leafValues>
        -4.3418608605861664e-02 4.1750597953796387e-01</leafValues></_>
    <_>
      <internalNodes>
        0 -1 70446 -8.7104849517345428e-03</internalNodes>
      <leafValues>
        -6.9548797607421875e-01 2.2907344624400139e-02</leafValues></_>
    <_>
      <internalNodes>
        0 -1 10097 -2.7072912082076073e-02</internalNodes>
      <leafValues>
        6.5562492609024048e-01 -2.4084992706775665e-02</leafValues></_></weakClassifiers></stage6>
</opencv_storage>
